Language model created by QuickLM on Thu Oct 25 01:16:24 EDT 2018
Copyright (c) 1996-2010 Carnegie Mellon University and Alexander I. Rudnicky

The model is in standard ARPA format, designed by Doug Paul while he was at MITRE.

The code that was used to produce this language model is available in Open Source.
Please visit http://www.speech.cs.cmu.edu/tools/ for more information

The (fixed) discount mass is 0.5. The backoffs are computed using the ratio method.
This model based on a corpus of 35 sentences and 41 words

\data\
ngram 1=41
ngram 2=74
ngram 3=74

\1-grams:
-0.9272 </s> -0.3010
-0.9272 <s> -0.2464
-2.4713 ARE -0.2996
-2.1703 BROWSER -0.2464
-2.1703 CALCULATOR -0.2464
-2.1703 CHROME -0.2464
-1.3573 CLOSE -0.2627
-2.1703 COMMAND -0.2981
-2.1703 CONTROL -0.2981
-2.4713 CURRENT -0.2996
-2.4713 CUT -0.2464
-2.1703 EXCEL -0.2464
-2.4713 FILE -0.2464
-2.4713 GOOD -0.2996
-2.4713 IS -0.2996
-2.1703 MANAGER -0.2464
-2.4713 MORNING -0.2464
-2.4713 NOTE -0.2996
-2.1703 NOTEPAD -0.2464
-1.3921 OPEN -0.2643
-2.4713 PAD -0.2464
-2.1703 PAINT -0.2464
-2.1703 PANEL -0.2464
-2.4713 PASTE -0.2464
-2.1703 PLAYER -0.2464
-2.1703 POINT -0.2464
-2.1703 POWER -0.2981
-2.1703 PROMPT -0.2464
-2.4713 REDO -0.2464
-2.4713 SAVE -0.2996
-2.4713 SLEEP -0.2464
-2.1703 TASK -0.2981
-2.4713 THE -0.2996
-2.4713 TIME -0.2464
-2.4713 UNDO -0.2464
-2.4713 UP -0.2464
-2.4713 WAKE -0.2996
-2.4713 WHAT -0.2996
-2.4713 WHO -0.2996
-2.1703 WORD -0.2464
-2.4713 YOU -0.2464

\2-grams:
-0.7312 <s> CLOSE -0.0000
-1.8451 <s> CUT 0.0000
-1.8451 <s> GOOD 0.0000
-0.7659 <s> OPEN 0.0000
-1.8451 <s> PASTE 0.0000
-1.8451 <s> REDO 0.0000
-1.8451 <s> SAVE 0.0000
-1.8451 <s> SLEEP 0.0000
-1.8451 <s> UNDO 0.0000
-1.8451 <s> WAKE 0.0000
-1.8451 <s> WHAT 0.0000
-1.8451 <s> WHO 0.0000
-0.3010 ARE YOU 0.0000
-0.3010 BROWSER </s> -0.3010
-0.3010 CALCULATOR </s> -0.3010
-0.3010 CHROME </s> -0.3010
-1.4150 CLOSE BROWSER 0.0000
-1.4150 CLOSE CALCULATOR 0.0000
-1.4150 CLOSE CHROME 0.0000
-1.4150 CLOSE COMMAND 0.0000
-1.4150 CLOSE CONTROL 0.0000
-1.4150 CLOSE EXCEL 0.0000
-1.4150 CLOSE NOTE 0.0000
-1.4150 CLOSE NOTEPAD 0.0000
-1.4150 CLOSE PAINT 0.0000
-1.4150 CLOSE PLAYER 0.0000
-1.4150 CLOSE POWER 0.0000
-1.4150 CLOSE TASK 0.0000
-1.4150 CLOSE WORD 0.0000
-0.3010 COMMAND PROMPT 0.0000
-0.3010 CONTROL PANEL 0.0000
-0.3010 CURRENT TIME 0.0000
-0.3010 CUT </s> -0.3010
-0.3010 EXCEL </s> -0.3010
-0.3010 FILE </s> -0.3010
-0.3010 GOOD MORNING 0.0000
-0.3010 IS THE 0.0000
-0.3010 MANAGER </s> -0.3010
-0.3010 MORNING </s> -0.3010
-0.3010 NOTE PAD 0.0000
-0.3010 NOTEPAD </s> -0.3010
-1.3802 OPEN BROWSER 0.0000
-1.3802 OPEN CALCULATOR 0.0000
-1.3802 OPEN CHROME 0.0000
-1.3802 OPEN COMMAND 0.0000
-1.3802 OPEN CONTROL 0.0000
-1.3802 OPEN EXCEL 0.0000
-1.3802 OPEN NOTEPAD 0.0000
-1.3802 OPEN PAINT 0.0000
-1.3802 OPEN PLAYER 0.0000
-1.3802 OPEN POWER 0.0000
-1.3802 OPEN TASK 0.0000
-1.3802 OPEN WORD 0.0000
-0.3010 PAD </s> -0.3010
-0.3010 PAINT </s> -0.3010
-0.3010 PANEL </s> -0.3010
-0.3010 PASTE </s> -0.3010
-0.3010 PLAYER </s> -0.3010
-0.3010 POINT </s> -0.3010
-0.3010 POWER POINT 0.0000
-0.3010 PROMPT </s> -0.3010
-0.3010 REDO </s> -0.3010
-0.3010 SAVE FILE 0.0000
-0.3010 SLEEP </s> -0.3010
-0.3010 TASK MANAGER 0.0000
-0.3010 THE CURRENT 0.0000
-0.3010 TIME </s> -0.3010
-0.3010 UNDO </s> -0.3010
-0.3010 UP </s> -0.3010
-0.3010 WAKE UP 0.0000
-0.3010 WHAT IS 0.0000
-0.3010 WHO ARE 0.0000
-0.3010 WORD </s> -0.3010
-0.3010 YOU </s> -0.3010

\3-grams:
-1.4150 <s> CLOSE BROWSER
-1.4150 <s> CLOSE CALCULATOR
-1.4150 <s> CLOSE CHROME
-1.4150 <s> CLOSE COMMAND
-1.4150 <s> CLOSE CONTROL
-1.4150 <s> CLOSE EXCEL
-1.4150 <s> CLOSE NOTE
-1.4150 <s> CLOSE NOTEPAD
-1.4150 <s> CLOSE PAINT
-1.4150 <s> CLOSE PLAYER
-1.4150 <s> CLOSE POWER
-1.4150 <s> CLOSE TASK
-1.4150 <s> CLOSE WORD
-0.3010 <s> CUT </s>
-0.3010 <s> GOOD MORNING
-1.3802 <s> OPEN BROWSER
-1.3802 <s> OPEN CALCULATOR
-1.3802 <s> OPEN CHROME
-1.3802 <s> OPEN COMMAND
-1.3802 <s> OPEN CONTROL
-1.3802 <s> OPEN EXCEL
-1.3802 <s> OPEN NOTEPAD
-1.3802 <s> OPEN PAINT
-1.3802 <s> OPEN PLAYER
-1.3802 <s> OPEN POWER
-1.3802 <s> OPEN TASK
-1.3802 <s> OPEN WORD
-0.3010 <s> PASTE </s>
-0.3010 <s> REDO </s>
-0.3010 <s> SAVE FILE
-0.3010 <s> SLEEP </s>
-0.3010 <s> UNDO </s>
-0.3010 <s> WAKE UP
-0.3010 <s> WHAT IS
-0.3010 <s> WHO ARE
-0.3010 ARE YOU </s>
-0.3010 CLOSE BROWSER </s>
-0.3010 CLOSE CALCULATOR </s>
-0.3010 CLOSE CHROME </s>
-0.3010 CLOSE COMMAND PROMPT
-0.3010 CLOSE CONTROL PANEL
-0.3010 CLOSE EXCEL </s>
-0.3010 CLOSE NOTE PAD
-0.3010 CLOSE NOTEPAD </s>
-0.3010 CLOSE PAINT </s>
-0.3010 CLOSE PLAYER </s>
-0.3010 CLOSE POWER POINT
-0.3010 CLOSE TASK MANAGER
-0.3010 CLOSE WORD </s>
-0.3010 COMMAND PROMPT </s>
-0.3010 CONTROL PANEL </s>
-0.3010 CURRENT TIME </s>
-0.3010 GOOD MORNING </s>
-0.3010 IS THE CURRENT
-0.3010 NOTE PAD </s>
-0.3010 OPEN BROWSER </s>
-0.3010 OPEN CALCULATOR </s>
-0.3010 OPEN CHROME </s>
-0.3010 OPEN COMMAND PROMPT
-0.3010 OPEN CONTROL PANEL
-0.3010 OPEN EXCEL </s>
-0.3010 OPEN NOTEPAD </s>
-0.3010 OPEN PAINT </s>
-0.3010 OPEN PLAYER </s>
-0.3010 OPEN POWER POINT
-0.3010 OPEN TASK MANAGER
-0.3010 OPEN WORD </s>
-0.3010 POWER POINT </s>
-0.3010 SAVE FILE </s>
-0.3010 TASK MANAGER </s>
-0.3010 THE CURRENT TIME
-0.3010 WAKE UP </s>
-0.3010 WHAT IS THE
-0.3010 WHO ARE YOU

\end\
